{"feature_names": ["log_rank_diff", "log_pts_diff", "age_diff", "ht_diff", "clay", "grass", "hard", "bo5", "big_event", "log_rank_diff*bo5", "log_rank_diff*clay", "log_rank_diff*grass"], "scaler_mean": [0.0, 0.0, 0.0, 0.0, 0.3088383233532934, 0.10720958083832335, 0.5818922155688623, 0.21595209580838323, 0.38337724550898206, 0.0, 0.0, 0.0], "scaler_std": [1.481210733247324, 1.242769970004654, 0.5809933966458548, 0.9986555033498967, 0.46201429997512206, 0.3093795187382151, 0.493248076558985, 0.41148121235926494, 0.4862089397933422, 0.8054293477673161, 0.7899585628709559, 0.5064806902385808], "layers": [{"W": [[-0.21736343134641992, 0.4882515392779807, 0.12600394845043897, 0.29524260224870935, -0.21880823390100762, -0.3079302504742304, -0.42393952510264915, 0.36647996937024757, 0.1325311192380788, 0.3664912225254533, -0.2887698772715786, 0.35064518832143554, 0.28849158875606684, -0.18051764660349687, -0.31216084637318914, -0.19383956394459032, -0.2057753612107744, -0.08513612558898191, -0.06990450360110764, -0.025168254228596136, 0.10817612927331482, -0.35133601042106527, -0.216344102448403, -0.09429067009895777], [-0.08825920973671494, 0.32138248790655666, -0.3405028149222651, 0.18672423170710997, 0.10912194010280253, -0.4182931718963578, 0.05678306468814984, -0.24083448205099953, -0.29006508549575527, 0.5288079170885983, 0.4733299190792601, 0.16437843600382884, -0.06646623157729897, -0.25639629114476625, 0.15844387074698293, -0.015587854220684165, -0.3496171669339817, -0.1274343937475593, -0.3611515422900076, 0.4136832422613204, -0.1348867146032836, 0.06634893558356449, -0.1683121661622177, 0.0566681626808068], [-0.11306144414115728, -0.19081622833663134, 0.3497155273477665, 0.29524250671571173, 0.4617693433384154, 0.25524457059849776, -0.029937710301829294, 0.3709122320068679, -0.16171028473978397, -0.19457856740224566, -0.41163908420739576, -0.09969754415562442, -0.21363600339688202, -0.13047078840633664, 0.08859080512572094, -0.008446779798464804, -0.2140082875805578, -0.07514218756585758, -0.25942162906751787, 0.18219340079624605, -0.28624284255620097, 0.3201903393187855, 0.15098245868133708, -0.26523945589196546], [-0.3473388199013249, 0.3091680208979325, 0.25705828270581094, 0.2694990680848391, 0.09648245143813386, -0.3249690817184424, -0.16224533160894158, -0.26724147765668044, 0.22915889276300686, 0.07246202749392902, -0.07493225462468962, -0.4416537020729895, -0.20569387762719807, -0.13387309992223576, 0.11180064284780633, 0.09787734466237018, 0.2235604172530768, -0.11198662011893737, -0.2419046753695915, 0.24952050448503155, 0.25639713975372735, -0.06269641709852557, 0.23580150887541984, -0.13570067256054485], [0.052728285712731054, -0.09177119211328251, -0.37663802679558883, -0.39396315676006705, -0.39722615607721384, 0.12200718129107027, -0.24582972658660066, -0.11151736567718579, 0.36806421256834493, -0.24465332954867877, 0.054043138289623684, 0.14459328316318837, -0.2317788724751586, -0.227058715147491, -0.20242275852606056, -0.23143917349606252, 0.30568627697729067, 0.20272857055688598, 0.12130953322888822, 0.17502398996875682, 0.24349951076992687, -0.27182708797231664, 0.3258860832155475, 0.03585557731232713], [0.30048083787550495, 0.271763682894335, -0.3208498462622645, -0.44398857365371897, -0.2352716538532566, -0.1700238107787271, 0.1923713169255711, 0.3351120207844196, -0.388183244769765, -0.0665120082534856, -0.12108466036190307, -0.2196713304059394, -0.2436026445873402, -0.022918071603371504, 0.3671213756035201, -0.09577769185105983, -0.015229603238196252, 0.1578302356962057, -0.15888419288151504, 0.41087184557435447, 0.4857209748784128, -0.3500953538729881, -0.0818109622181042, -0.06485991985032154], [-0.25728232203949336, -0.301418982142353, 0.15779301387712866, 0.13027749815637218, -0.31773305646479855, -0.13974719684068146, 0.42917961970468343, -0.14358510624804233, -0.3088683856631642, 0.04770927872080061, 0.31901179112700573, -0.14196219933654677, 0.12528867373912944, 0.06018677266742508, -0.2099525713353967, 0.14601747680378432, -0.06603036001394, 0.1428393826364233, 0.11470158633245998, 0.14390737675946716, -0.3778492342585807, 0.35260102716280617, -0.13168502683569253, -0.27774239804658735], [-0.443915858667687, 0.11564554836036531, 0.10923655934810733, -0.4334219901571889, 0.0947896202018045, -0.20360507490190435, 0.15163522993430611, -0.3114576106294349, 0.26115024775551915, 0.01823886617703816, 0.3008886898331658, -0.2606227112430373, -0.1067932880049079, -0.35449244870265345, 0.4161735971600329, 0.4616620054888022, -0.23109746185299457, 0.29652453646302107, 0.29671253067819964, 0.11894768870608109, -0.02217871788475736, -0.1843937427505583, -0.2566133386166297, 0.3247841963767186], [0.24130321975638044, 0.05283384719192993, -0.07051556116183033, -0.20074068833638803, 0.20185642862403394, 0.2791333238841916, 0.25451342008769146, 0.27794896386230067, 0.315589492992069, -0.3282591834123516, -0.18016425574577585, 0.3470289079539035, 0.07029891100604234, -0.3651498274697254, -0.20992980346668277, 0.15136622198841232, -0.3520027952562321, -0.26804606078571636, 0.057752259272406105, 0.2464716081646442, 0.07766347162160243, -0.27328652298868433, 0.2603932869631458, -0.15858283271532372], [-0.23940476813025674, 0.2798640900640845, 0.008896662127443715, 0.3739156738319965, 0.1851453689749843, 0.0255203511897915, -0.3610803283119562, -0.1065688245838522, -0.1328463576746973, 0.05687349250124696, 0.37056222817248946, -0.028803093346597607, 0.2940152127111404, 0.1523634318098933, 0.15305896953131123, 0.0787184164010694, -0.008899438394944345, 0.041324963652744504, -0.28386039370203864, 0.2513851107750627, -0.06899847450357188, -0.4504420181344099, 0.06447236737004658, -0.22074552744265202], [0.3116570818713842, 0.34047899490421824, 0.4004690054578038, -0.14112940413926406, -0.4164921871438744, 0.3513114699561281, -0.15313820286388263, 0.31536037536188316, 0.4542733895403971, 0.26269567161710805, -0.1895829120807915, -0.14737840246925413, 0.24020758963149305, -0.11980617488685386, -0.3362390541422949, 0.16524744695596602, 0.31696289238840786, 0.23112865374499086, -0.05108069376255313, -0.3876972990508133, 0.09756575968281192, 0.4638812116637301, -0.3432048755042627, -0.018930212201362786], [0.2617841191121962, 0.12820868294254245, 0.08162025985380865, 0.03620371899953312, -0.11545634088762377, -0.08981892694810842, 0.25485444715828837, 0.13799636590293374, 0.21354683088580081, 0.23694690647872604, -0.05325817303293067, -0.16452771391994145, 0.31193758606651034, -0.023135418772908502, 0.13639126529070428, 0.20161787347581894, 0.30969098228654696, -0.14329369322926944, -0.0714046115452681, -0.38279545904240575, 0.033138080606823, -0.30209153857547955, 0.0652324503445086, 0.10911648276306085]], "b": [-0.08007463206225349, 0.21401140769585633, -0.2494782301569266, -0.2771628240194856, 0.255024632250644, -0.04372207927353256, -0.18684393231797, -0.025182697981881757, 0.2511879479012053, -0.15377259772236127, 0.07929253101752644, -0.36599298443714545, -0.3882421084679724, -0.022631870439042925, 0.03701030200438446, 0.13734567335416115, 0.2374725187766526, 0.3767604782978775, -0.0003471032146061155, -0.035181236571898526, 0.23472862908890318, -0.04776080115120342, -0.025512240684859588, -0.3093953035336888]}, {"W": [[-0.40400211522666934, 0.3934826508516962, 0.34797713102251154, 0.1318042828645199, -0.013841040742387957, -0.3666148347640273, -0.25098030030450397, -0.2595980367312343, 0.041888721636545674, 0.12162406134735958, 0.194961668396172, -0.15499518030547177], [0.47833610337447013, 0.14135897685374965, 0.013925939478712273, 0.11285318017697968, -0.003653205073650174, -0.28192672745406705, -0.059469346236876185, 0.30291370307059157, -0.3728796111706189, -0.30232044880457143, -0.04781438137165556, -0.5168632427123852], [0.27638976973044005, 0.08777965214505207, -0.13351283891856422, -0.4899886708349971, 0.03393516085403372, -0.09711098113485955, -0.21244390298743915, -0.027058732892662307, -0.03553284636120918, 0.0717323527937174, 0.11576427206051582, -0.2928630302589929], [0.14042286237372972, -0.05046808930869069, -0.09921335979809898, 0.5105270530975087, 0.07596405867687891, -0.31831038014343205, -0.3119165596657198, 0.3296127854084343, -0.5013250737585859, 0.10443695867352569, 0.44174623222569626, -0.060411661847497876], [0.013913321455963792, 0.15503047476833665, -0.025683560036905532, -0.003980454454061948, 0.4229568367968244, -0.013585161070555433, 0.32794093703885663, 0.32054786213127195, -0.2576827500411742, -0.27458206998024925, -0.41355373316165167, -0.3489853986983323], [-0.13505021076777082, 0.13626971429236934, -0.31883656507780894, -0.08668730030515144, 0.3007558653665098, -0.37910454403463395, 0.2597037807609308, -0.1562602314682679, -0.30886729332392726, 0.15254952386733736, 0.1016800053667422, 0.28740433595615755], [0.15048824655061566, 0.2926917550962024, -0.22826397283243494, -0.30343054004069503, 0.25058302334938126, 0.24088767889915977, 0.36587599065994264, -0.13309804227592584, -0.09615869435942312, 0.2615829609918417, -0.11303161597208235, 0.35932130579522226], [0.3028978097760598, -0.09014695210169815, 0.24593935529040056, 0.20651358946781814, -0.2144882235848959, 0.39763032173986945, 0.0662023349483043, 0.3097478949218993, -0.12688307334143856, 0.3031026435325509, -0.037251531115077896, -0.5766571216131515], [0.2797286033684848, -0.26908366855308313, -0.1827150296255762, 0.2571254034872364, 0.44023434050419197, 0.06969278408849132, 0.06241411442045084, -0.1139322446140726, -0.20858138670730653, -0.10838257622587338, 0.26457918215269494, 0.2477348345261922], [0.3833301103949494, 0.13215777899445888, -0.3349650086742246, 0.017729210135762875, -0.27712137610479776, -0.07134510219835782, -0.13501970740842448, 0.4370189616203977, -0.05149912810296031, -0.39082662168816773, -0.27631307853609344, 0.0019575292906401118], [0.20047039625355245, -0.427657819792148, -0.17812440285975534, 0.11318335497097776, -0.2958972660805244, 0.15616552966312383, 0.20183065271558104, -0.2534736390904223, -0.4003370407762728, 0.2909172216639689, -0.056958591694551426, -0.24192673465727288], [0.30844300100684224, 0.23238243250841617, 0.5055499801637063, 0.2259535907703199, -0.09758131623618847, -0.4711346736670954, 0.28548842982891304, 0.08065330886963686, -0.05033419925304102, 0.19969173829629036, -0.13354171857807842, -0.17321561592118478], [-0.2789128983933297, -0.09017450714331855, -0.26799901893973105, -0.265651441788164, -0.34940297952287047, -0.04684064746046149, 0.2885059697400991, 0.18367144237474553, 0.3500025742369078, -0.22452643114774495, -0.21943676559323472, 0.027904444227795713], [-0.21355298039747006, 0.4329531445989057, -0.43170395160558356, 0.29125587465137304, -0.3151696334896423, 0.32770261607211476, -0.026498753399868718, 0.31600471379345274, -0.26251211395629687, 0.12901952275642012, 0.49425858877923146, 0.11616350482751646], [0.18880811457238592, 0.14643405203047066, -0.03330580455714315, 0.055207470525254446, 0.028965822249590285, 0.30236385830857576, -0.2896480862979744, -0.12811173002989795, 0.37045105208688656, 0.27761452800051084, -0.21214803142378594, 0.06810301212790179], [-0.14017778884143337, -0.190761104459372, -0.13781566108419352, -0.19565880160271137, 0.16309833668358745, -0.32883705492878207, 0.3392675264543898, 0.3505994298136479, 0.18013942874011132, 0.15379953331681556, -0.10757245129743989, 0.34764789617061775], [0.08987688189606198, -0.20198222358727072, 0.3501237908664549, 0.10295348298449604, 0.398543747754701, 0.18781693754802894, 0.04788671155004574, -0.2129718334211611, 0.3385711615025976, 0.3956967974028758, -0.2288933363065607, -0.22950449151990654], [0.06177015342862826, 0.2685400605933407, 0.3320852410176582, -0.372086226033961, 0.11089895290563212, -0.15042954909735956, 0.4001558079758166, 0.2604407976017582, 0.30432462939415617, -0.008628146870136648, 0.04780679107991089, -0.2464787902996346], [-0.3716802097772095, 0.31206995020119627, 0.14676109979401358, 0.3458809522877116, 0.46107895939327426, 0.044324906156560574, 0.17503841091567215, 0.3110552706084677, 0.3228781252032463, -0.19906256056009183, 0.0868971239334663, -0.32952543546769686], [0.5151636280614384, 0.08325666175339112, -0.2901085931452053, 0.1673491623583577, 0.06336564981350563, 0.010448918219564226, -0.2921105325464276, 0.2014558117822391, 0.05595551371429102, 0.25131451645905983, -0.04444598874133054, 0.07200253546007324], [0.009614113991914293, 0.141435206784153, 0.25996269186050747, -0.22197832744375112, -0.2755520899024515, -0.38176889652442664, 0.15674585847456685, -0.03493369901442092, 0.2026119634182953, -0.19110277886768334, -0.0980331277111771, -0.42038813537623565], [0.052174612148587464, 0.05202450324949737, -0.23653445148983815, -0.1455912739091735, 0.3624778864106126, -0.10801534259725037, 0.015573791844621578, 0.24854286632473246, -0.0466367779161732, 0.11874288962713682, 0.3477350051129087, 0.37855167775772675], [-0.1818307808819995, 0.37813262274559, 0.03874343311555344, -0.2113389548939915, -0.04147170276938332, 0.35105424596670787, -0.029907639324461235, -0.16498983877457402, 0.06715348570907721, -0.26819807319207345, -0.6692191254450353, -0.24607237685558347], [-0.3422666357520763, -0.22964136616247657, -0.36294612410593874, 0.002763373134885799, -0.15997315531542938, -0.07820048803444046, 0.25479183847532694, -0.13008303265564117, 0.198079555411803, -0.31313322207538213, -0.22397262963665346, -0.43872544132024976]], "b": [-0.0937387683519412, -0.20236032805448112, -0.2575345269796939, -0.382282756136048, -0.2284244465362764, -0.05041627203346928, -0.28953680076313254, -0.09850542519963291, 0.0012980350835333863, 0.2114375902162727, -0.2703898685611472, 0.23704208512668745]}, {"W": [[0.24329357433396925], [-0.5541751562437909], [0.5222241226113813], [0.5087223402894613], [-0.621009349055424], [-0.29650843459790643], [0.3669305827014686], [0.35061289849699506], [-0.4605303284792083], [-0.4083928042361288], [-0.33677505022916326], [-0.0867780052300936]], "b": [0.19606697496802264]}], "platt": {"A": 0.9755120936767068, "B": 0.045595388812946266}, "meta": {"trained_on": "41750 ATP matches 2010-2024 (both orientations)", "oos_2024": {"acc": 0.6361, "logloss": 0.6294, "brier": 0.2204}}}